<?xml version="1.0"?>
<opencv_storage>
<cascade>
  <stageType>BOOST</stageType>
  <featureType>HAAR</featureType>
  <height>24</height>
  <width>36</width>
  <stageParams>
    <boostType>GAB</boostType>
    <minHitRate>9.9500000476837158e-01</minHitRate>
    <maxFalseAlarm>5.0000000000000000e-01</maxFalseAlarm>
    <weightTrimRate>9.4999998807907104e-01</weightTrimRate>
    <maxDepth>1</maxDepth>
    <maxWeakCount>100</maxWeakCount></stageParams>
  <featureParams>
    <maxCatCount>0</maxCatCount>
    <featSize>1</featSize>
    <mode>BASIC</mode></featureParams>
  <stageNum>14</stageNum>
  <stages>
    <!-- stage 0 -->
    <_>
      <maxWeakCount>3</maxWeakCount>
      <stageThreshold>-1.0212429761886597e+00</stageThreshold>
      <weakClassifiers>
        <_>
          <internalNodes>
            0 -1 26 -1.5274611115455627e-01</internalNodes>
          <leafValues>
            5.1063829660415649e-01 -7.9601991176605225e-01</leafValues></_>
        <_>
          <internalNodes>
            0 -1 25 -4.0481869131326675e-02</internalNodes>
          <leafValues>
            5.4101401567459106e-01 -6.9013673067092896e-01</leafValues></_>
        <_>
          <internalNodes>
            0 -1 69 1.5302205458283424e-02</internalNodes>
          <leafValues>
            -7.6546895503997803e-01 4.6491366624832153e-01</leafValues></_></weakClassifiers></_>
    <!-- stage 1 -->
    <_>
      <maxWeakCount>4</maxWeakCount>
      <stageThreshold>-7.0134180784225464e-01</stageThreshold>
      <weakClassifiers>
        <_>
          <internalNodes>
            0 -1 17 5.8214433491230011e-02</internalNodes>
          <leafValues>
            -7.6271188259124756e-01 5.1807230710983276e-01</leafValues></_>
        <_>
          <internalNodes>
            0 -1 8 -2.3999948054552078e-02</internalNodes>
          <leafValues>
            5.2582317590713501e-01 -7.0705479383468628e-01</leafValues></_>
        <_>
          <internalNodes>
            0 -1 65 -3.1332248909166083e-05</internalNodes>
          <leafValues>
            2.5208303332328796e-01 -9.6357476711273193e-01</leafValues></_>
        <_>
          <internalNodes>
            0 -1 34 -9.3680717051029205e-02</internalNodes>
          <leafValues>
            5.1634180545806885e-01 -5.7881164550781250e-01</leafValues></_></weakClassifiers></_>
    <!-- stage 2 -->
    <_>
      <maxWeakCount>5</maxWeakCount>
      <stageThreshold>-1.1459311246871948e+00</stageThreshold>
      <weakClassifiers>
        <_>
          <internalNodes>
            0 -1 22 -6.3470482826232910e-02</internalNodes>
          <leafValues>
            2.3809523880481720e-01 -7.5959080457687378e-01</leafValues></_>
        <_>
          <internalNodes>
            0 -1 52 -5.5546792282257229e-05</internalNodes>
          <leafValues>
            -9.3564361333847046e-01 1.1926846951246262e-01</leafValues></_>
        <_>
          <internalNodes>
            0 -1 54 3.5620818380266428e-04</internalNodes>
          <leafValues>
            1.8601223826408386e-01 -9.1596513986587524e-01</leafValues></_>
        <_>
          <internalNodes>
            0 -1 78 -6.3168117776513100e-05</internalNodes>
          <leafValues>
            -9.7927981615066528e-01 1.8423303961753845e-01</leafValues></_>
        <_>
          <internalNodes>
            0 -1 60 4.7038827324286103e-04</internalNodes>
          <leafValues>
            2.2612334787845612e-01 -8.5153746604919434e-01</leafValues></_></weakClassifiers></_>
    <!-- stage 3 -->
    <_>
      <maxWeakCount>4</maxWeakCount>
      <stageThreshold>-9.2292398214340210e-01</stageThreshold>
      <weakClassifiers>
        <_>
          <internalNodes>
            0 -1 73 9.8218843340873718e-03</internalNodes>
          <leafValues>
            -6.9506728649139404e-01 7.5999999046325684e-01</leafValues></_>
        <_>
          <internalNodes>
            0 -1 0 3.4034915734082460e-04</internalNodes>
          <leafValues>
            1.9292597472667694e-01 -8.7461286783218384e-01</leafValues></_>
        <_>
          <internalNodes>
            0 -1 49 1.5379406977444887e-04</internalNodes>
          <leafValues>
            2.8023713827133179e-01 -7.3763763904571533e-01</leafValues></_>
        <_>
          <internalNodes>
            0 -1 3 3.3176149008795619e-04</internalNodes>
          <leafValues>
            3.6651897430419922e-01 -6.9196420907974243e-01</leafValues></_></weakClassifiers></_>
    <!-- stage 4 -->
    <_>
      <maxWeakCount>5</maxWeakCount>
      <stageThreshold>-1.0439249277114868e+00</stageThreshold>
      <weakClassifiers>
        <_>
          <internalNodes>
            0 -1 1 -1.3927655294537544e-02</internalNodes>
          <leafValues>
            -1.0679611563682556e-01 -8.6206895112991333e-01</leafValues></_>
        <_>
          <internalNodes>
            0 -1 63 1.0672861710190773e-02</internalNodes>
          <leafValues>
            -8.1406211853027344e-01 1.7889083921909332e-01</leafValues></_>
        <_>
          <internalNodes>
            0 -1 10 1.0078671388328075e-02</internalNodes>
          <leafValues>
            -4.1255053877830505e-01 5.5879360437393188e-01</leafValues></_>
        <_>
          <internalNodes>
            0 -1 15 2.4475395679473877e-02</internalNodes>
          <leafValues>
            -4.0913870930671692e-01 4.9973514676094055e-01</leafValues></_>
        <_>
          <internalNodes>
            0 -1 62 6.1697801575064659e-03</internalNodes>
          <leafValues>
            -2.7272158861160278e-01 7.6866650581359863e-01</leafValues></_></weakClassifiers></_>
    <!-- stage 5 -->
    <_>
      <maxWeakCount>5</maxWeakCount>
      <stageThreshold>-9.4499558210372925e-01</stageThreshold>
      <weakClassifiers>
        <_>
          <internalNodes>
            0 -1 24 2.7253073453903198e-01</internalNodes>
          <leafValues>
            -6.2770563364028931e-01 5.2941179275512695e-01</leafValues></_>
        <_>
          <internalNodes>
            0 -1 31 3.4739909460768104e-04</internalNodes>
          <leafValues>
            1.6619612276554108e-01 -8.8704121112823486e-01</leafValues></_>
        <_>
          <internalNodes>
            0 -1 30 -4.3970171827822924e-04</internalNodes>
          <leafValues>
            -8.7252372503280640e-01 1.8569388985633850e-01</leafValues></_>
        <_>
          <internalNodes>
            0 -1 30 2.6101700495928526e-04</internalNodes>
          <leafValues>
            2.0132088661193848e-01 -7.9085141420364380e-01</leafValues></_>
        <_>
          <internalNodes>
            0 -1 28 4.6337384264916182e-04</internalNodes>
          <leafValues>
            1.8771673738956451e-01 -8.1980705261230469e-01</leafValues></_></weakClassifiers></_>
    <!-- stage 6 -->
    <_>
      <maxWeakCount>7</maxWeakCount>
      <stageThreshold>-9.5727014541625977e-01</stageThreshold>
      <weakClassifiers>
        <_>
          <internalNodes>
            0 -1 19 -8.3112716674804688e-02</internalNodes>
          <leafValues>
            5.2380955219268799e-01 -6.4757710695266724e-01</leafValues></_>
        <_>
          <internalNodes>
            0 -1 32 -2.4576307623647153e-04</internalNodes>
          <leafValues>
            -7.4959355592727661e-01 2.2460183501243591e-01</leafValues></_>
        <_>
          <internalNodes>
            0 -1 42 9.0161020125378855e-06</internalNodes>
          <leafValues>
            -5.4409360885620117e-01 3.1010338664054871e-01</leafValues></_>
        <_>
          <internalNodes>
            0 -1 38 6.2136596534401178e-04</internalNodes>
          <leafValues>
            3.3519387245178223e-01 -6.8563359975814819e-01</leafValues></_>
        <_>
          <internalNodes>
            0 -1 66 1.8600434486870654e-05</internalNodes>
          <leafValues>
            -8.5786050558090210e-01 1.8003419041633606e-01</leafValues></_>
        <_>
          <internalNodes>
            0 -1 53 -2.0976402447558939e-04</internalNodes>
          <leafValues>
            -8.5463303327560425e-01 1.9875095784664154e-01</leafValues></_>
        <_>
          <internalNodes>
            0 -1 48 -3.3247850835323334e-02</internalNodes>
          <leafValues>
            4.3664556741714478e-01 -4.5570325851440430e-01</leafValues></_></weakClassifiers></_>
    <!-- stage 7 -->
    <_>
      <maxWeakCount>6</maxWeakCount>
      <stageThreshold>-1.4556102752685547e+00</stageThreshold>
      <weakClassifiers>
        <_>
          <internalNodes>
            0 -1 36 3.4992404282093048e-02</internalNodes>
          <leafValues>
            -7.1007370948791504e-01 1.9101123511791229e-01</leafValues></_>
        <_>
          <internalNodes>
            0 -1 2 -6.0174025595188141e-02</internalNodes>
          <leafValues>
            6.0202103853225708e-01 -3.3598685264587402e-01</leafValues></_>
        <_>
          <internalNodes>
            0 -1 27 -1.6692165285348892e-02</internalNodes>
          <leafValues>
            4.5341801643371582e-01 -3.6278244853019714e-01</leafValues></_>
        <_>
          <internalNodes>
            0 -1 16 -2.5195457055815496e-05</internalNodes>
          <leafValues>
            3.5767522454261780e-01 -5.1165604591369629e-01</leafValues></_>
        <_>
          <internalNodes>
            0 -1 46 1.3427756493911147e-04</internalNodes>
          <leafValues>
            2.1809303760528564e-01 -7.8321498632431030e-01</leafValues></_>
        <_>
          <internalNodes>
            0 -1 70 -3.5685184411704540e-04</internalNodes>
          <leafValues>
            -6.7567986249923706e-01 2.4679577350616455e-01</leafValues></_></weakClassifiers></_>
    <!-- stage 8 -->
    <_>
      <maxWeakCount>7</maxWeakCount>
      <stageThreshold>-1.5091392993927002e+00</stageThreshold>
      <weakClassifiers>
        <_>
          <internalNodes>
            0 -1 74 1.1172087863087654e-02</internalNodes>
          <leafValues>
            -6.7198175191879272e-01 4.0350878238677979e-01</leafValues></_>
        <_>
          <internalNodes>
            0 -1 37 -2.5164992548525333e-03</internalNodes>
          <leafValues>
            4.4625222682952881e-01 -3.5468596220016479e-01</leafValues></_>
        <_>
          <internalNodes>
            0 -1 43 8.8137385318987072e-06</internalNodes>
          <leafValues>
            -4.6341699361801147e-01 2.8807145357131958e-01</leafValues></_>
        <_>
          <internalNodes>
            0 -1 41 -4.8880907706916332e-04</internalNodes>
          <leafValues>
            -6.0674053430557251e-01 2.2501602768898010e-01</leafValues></_>
        <_>
          <internalNodes>
            0 -1 13 3.0336556956171989e-03</internalNodes>
          <leafValues>
            -2.0991699397563934e-01 6.9445496797561646e-01</leafValues></_>
        <_>
          <internalNodes>
            0 -1 79 1.0006899537984282e-04</internalNodes>
          <leafValues>
            2.7265080809593201e-01 -6.4360493421554565e-01</leafValues></_>
        <_>
          <internalNodes>
            0 -1 58 1.2621472124010324e-03</internalNodes>
          <leafValues>
            -3.0680444836616516e-01 4.7517135739326477e-01</leafValues></_></weakClassifiers></_>
    <!-- stage 9 -->
    <_>
      <maxWeakCount>8</maxWeakCount>
      <stageThreshold>-1.3170415163040161e+00</stageThreshold>
      <weakClassifiers>
        <_>
          <internalNodes>
            0 -1 77 1.8393050413578749e-03</internalNodes>
          <leafValues>
            -6.4365255832672119e-01 3.6170211434364319e-01</leafValues></_>
        <_>
          <internalNodes>
            0 -1 33 3.4865533234551549e-04</internalNodes>
          <leafValues>
            1.4027273654937744e-01 -6.8775516748428345e-01</leafValues></_>
        <_>
          <internalNodes>
            0 -1 11 -8.3696768342633732e-06</internalNodes>
          <leafValues>
            2.4419000744819641e-01 -5.4495191574096680e-01</leafValues></_>
        <_>
          <internalNodes>
            0 -1 29 3.5361978225409985e-03</internalNodes>
          <leafValues>
            -5.9179747104644775e-01 2.8900659084320068e-01</leafValues></_>
        <_>
          <internalNodes>
            0 -1 51 -1.3877142919227481e-03</internalNodes>
          <leafValues>
            -6.8421792984008789e-01 1.9797946512699127e-01</leafValues></_>
        <_>
          <internalNodes>
            0 -1 5 -2.5098073482513428e-01</internalNodes>
          <leafValues>
            4.6571615338325500e-01 -4.0951198339462280e-01</leafValues></_>
        <_>
          <internalNodes>
            0 -1 55 -8.5566714406013489e-02</internalNodes>
          <leafValues>
            6.0319048166275024e-01 -3.1584781408309937e-01</leafValues></_>
        <_>
          <internalNodes>
            0 -1 31 -4.9077987205237150e-04</internalNodes>
          <leafValues>
            -8.1250864267349243e-01 2.2312074899673462e-01</leafValues></_></weakClassifiers></_>
    <!-- stage 10 -->
    <_>
      <maxWeakCount>7</maxWeakCount>
      <stageThreshold>-1.2835739850997925e+00</stageThreshold>
      <weakClassifiers>
        <_>
          <internalNodes>
            0 -1 20 -1.2626484036445618e-02</internalNodes>
          <leafValues>
            3.4782609343528748e-01 -6.3999998569488525e-01</leafValues></_>
        <_>
          <internalNodes>
            0 -1 75 -9.5084087661234662e-06</internalNodes>
          <leafValues>
            2.1406833827495575e-01 -5.7735669612884521e-01</leafValues></_>
        <_>
          <internalNodes>
            0 -1 71 -1.2321374924795236e-05</internalNodes>
          <leafValues>
            1.6689752042293549e-01 -7.8884488344192505e-01</leafValues></_>
        <_>
          <internalNodes>
            0 -1 47 3.3582828473299742e-04</internalNodes>
          <leafValues>
            2.3080603778362274e-01 -6.6746497154235840e-01</leafValues></_>
        <_>
          <internalNodes>
            0 -1 7 -6.4215168356895447e-02</internalNodes>
          <leafValues>
            4.0555799007415771e-01 -3.8991490006446838e-01</leafValues></_>
        <_>
          <internalNodes>
            0 -1 44 3.5222783481003717e-05</internalNodes>
          <leafValues>
            -4.7287940979003906e-01 3.1606855988502502e-01</leafValues></_>
        <_>
          <internalNodes>
            0 -1 35 -9.5084087661234662e-06</internalNodes>
          <leafValues>
            4.0810534358024597e-01 -3.9255154132843018e-01</leafValues></_></weakClassifiers></_>
    <!-- stage 11 -->
    <_>
      <maxWeakCount>8</maxWeakCount>
      <stageThreshold>-1.4210735559463501e+00</stageThreshold>
      <weakClassifiers>
        <_>
          <internalNodes>
            0 -1 56 -2.2623180411756039e-03</internalNodes>
          <leafValues>
            1.1111111193895340e-01 -6.6037738323211670e-01</leafValues></_>
        <_>
          <internalNodes>
            0 -1 59 -4.3734867358580232e-04</internalNodes>
          <leafValues>
            -6.6683101654052734e-01 1.0664495825767517e-01</leafValues></_>
        <_>
          <internalNodes>
            0 -1 6 -2.1924436092376709e-02</internalNodes>
          <leafValues>
            5.2611607313156128e-01 -2.6564824581146240e-01</leafValues></_>
        <_>
          <internalNodes>
            0 -1 68 -3.0798371881246567e-03</internalNodes>
          <leafValues>
            4.0334039926528931e-01 -3.2710361480712891e-01</leafValues></_>
        <_>
          <internalNodes>
            0 -1 40 8.8137385318987072e-06</internalNodes>
          <leafValues>
            -4.0792626142501831e-01 3.3662363886833191e-01</leafValues></_>
        <_>
          <internalNodes>
            0 -1 80 8.4623345173895359e-05</internalNodes>
          <leafValues>
            1.6167648136615753e-01 -7.8118592500686646e-01</leafValues></_>
        <_>
          <internalNodes>
            0 -1 50 1.7287149094045162e-03</internalNodes>
          <leafValues>
            -2.6289075613021851e-01 5.3538370132446289e-01</leafValues></_>
        <_>
          <internalNodes>
            0 -1 64 1.5313294716179371e-04</internalNodes>
          <leafValues>
            2.3455123603343964e-01 -6.9262146949768066e-01</leafValues></_></weakClassifiers></_>
    <!-- stage 12 -->
    <_>
      <maxWeakCount>7</maxWeakCount>
      <stageThreshold>-9.1636645793914795e-01</stageThreshold>
      <weakClassifiers>
        <_>
          <internalNodes>
            0 -1 76 5.8826683089137077e-03</internalNodes>
          <leafValues>
            -6.3676148653030396e-01 4.8717948794364929e-01</leafValues></_>
        <_>
          <internalNodes>
            0 -1 18 1.0922301953542046e-05</internalNodes>
          <leafValues>
            -5.0011456012725830e-01 2.3569278419017792e-01</leafValues></_>
        <_>
          <internalNodes>
            0 -1 67 -2.2177486680448055e-03</internalNodes>
          <leafValues>
            7.1911019086837769e-01 -1.7744784057140350e-01</leafValues></_>
        <_>
          <internalNodes>
            0 -1 57 -4.3145446397829801e-05</internalNodes>
          <leafValues>
            -4.2405587434768677e-01 3.4219408035278320e-01</leafValues></_>
        <_>
          <internalNodes>
            0 -1 21 1.3275713718030602e-04</internalNodes>
          <leafValues>
            1.4895249903202057e-01 -8.5523486137390137e-01</leafValues></_>
        <_>
          <internalNodes>
            0 -1 9 -1.6850240528583527e-02</internalNodes>
          <leafValues>
            2.7918791770935059e-01 -4.2484828829765320e-01</leafValues></_>
        <_>
          <internalNodes>
            0 -1 61 1.6339628928108141e-05</internalNodes>
          <leafValues>
            -3.4193447232246399e-01 3.9090931415557861e-01</leafValues></_></weakClassifiers></_>
    <!-- stage 13 -->
    <_>
      <maxWeakCount>7</maxWeakCount>
      <stageThreshold>-1.0428655147552490e+00</stageThreshold>
      <weakClassifiers>
        <_>
          <internalNodes>
            0 -1 39 -2.4943534299382009e-05</internalNodes>
          <leafValues>
            -9.7744360566139221e-02 -7.1349865198135376e-01</leafValues></_>
        <_>
          <internalNodes>
            0 -1 23 1.7159469280159101e-05</internalNodes>
          <leafValues>
            -5.7242298126220703e-01 2.1539327502250671e-01</leafValues></_>
        <_>
          <internalNodes>
            0 -1 12 1.3131948071531951e-04</internalNodes>
          <leafValues>
            2.0770996809005737e-01 -5.5198258161544800e-01</leafValues></_>
        <_>
          <internalNodes>
            0 -1 4 -3.7066295742988586e-02</internalNodes>
          <leafValues>
            6.0749679803848267e-01 -2.4581590294837952e-01</leafValues></_>
        <_>
          <internalNodes>
            0 -1 14 6.3775621354579926e-02</internalNodes>
          <leafValues>
            -2.0523966848850250e-01 7.3681944608688354e-01</leafValues></_>
        <_>
          <internalNodes>
            0 -1 45 4.5221164822578430e-02</internalNodes>
          <leafValues>
            -4.9182319641113281e-01 3.1378489732742310e-01</leafValues></_>
        <_>
          <internalNodes>
            0 -1 72 -1.1901609832420945e-04</internalNodes>
          <leafValues>
            -6.1519944667816162e-01 2.3247309029102325e-01</leafValues></_></weakClassifiers></_></stages>
  <features>
    <_>
      <rects>
        <_>
          0 0 6 6 -1.</_>
        <_>
          0 0 3 3 2.</_>
        <_>
          3 3 3 3 2.</_></rects>
      <tilted>0</tilted></_>
    <_>
      <rects>
        <_>
          0 0 34 4 -1.</_>
        <_>
          0 2 34 2 2.</_></rects>
      <tilted>0</tilted></_>
    <_>
      <rects>
        <_>
          0 1 8 19 -1.</_>
        <_>
          4 1 4 19 2.</_></rects>
      <tilted>0</tilted></_>
    <_>
      <rects>
        <_>
          0 2 8 1 -1.</_>
        <_>
          4 2 4 1 2.</_></rects>
      <tilted>0</tilted></_>
    <_>
      <rects>
        <_>
          0 3 30 4 -1.</_>
        <_>
          10 3 10 4 3.</_></rects>
      <tilted>0</tilted></_>
    <_>
      <rects>
        <_>
          0 5 36 16 -1.</_>
        <_>
          12 5 12 16 3.</_></rects>
      <tilted>0</tilted></_>
    <_>
      <rects>
        <_>
          0 8 15 4 -1.</_>
        <_>
          5 8 5 4 3.</_></rects>
      <tilted>0</tilted></_>
    <_>
      <rects>
        <_>
          0 9 27 6 -1.</_>
        <_>
          9 9 9 6 3.</_></rects>
      <tilted>0</tilted></_>
    <_>
      <rects>
        <_>
          0 12 18 4 -1.</_>
        <_>
          9 12 9 4 2.</_></rects>
      <tilted>0</tilted></_>
    <_>
      <rects>
        <_>
          0 16 27 3 -1.</_>
        <_>
          9 16 9 3 3.</_></rects>
      <tilted>0</tilted></_>
    <_>
      <rects>
        <_>
          1 5 32 4 -1.</_>
        <_>
          1 5 16 2 2.</_>
        <_>
          17 7 16 2 2.</_></rects>
      <tilted>0</tilted></_>
    <_>
      <rects>
        <_>
          1 11 1 4 -1.</_>
        <_>
          1 13 1 2 2.</_></rects>
      <tilted>0</tilted></_>
    <_>
      <rects>
        <_>
          2 0 9 1 -1.</_>
        <_>
          5 0 3 1 3.</_></rects>
      <tilted>0</tilted></_>
    <_>
      <rects>
        <_>
          2 0 15 3 -1.</_>
        <_>
          2 1 15 1 3.</_></rects>
      <tilted>0</tilted></_>
    <_>
      <rects>
        <_>
          2 2 33 20 -1.</_>
        <_>
          13 2 11 20 3.</_></rects>
      <tilted>0</tilted></_>
    <_>
      <rects>
        <_>
          2 12 16 12 -1.</_>
        <_>
          2 12 8 6 2.</_>
        <_>
          10 18 8 6 2.</_></rects>
      <tilted>0</tilted></_>
    <_>
      <rects>
        <_>
          2 18 1 4 -1.</_>
        <_>
          2 20 1 2 2.</_></rects>
      <tilted>0</tilted></_>
    <_>
      <rects>
        <_>
          2 18 33 6 -1.</_>
        <_>
          2 21 33 3 2.</_></rects>
      <tilted>0</tilted></_>
    <_>
      <rects>
        <_>
          4 0 4 5 -1.</_>
        <_>
          6 0 2 5 2.</_></rects>
      <tilted>0</tilted></_>
    <_>
      <rects>
        <_>
          4 0 19 6 -1.</_>
        <_>
          4 3 19 3 2.</_></rects>
      <tilted>0</tilted></_>
    <_>
      <rects>
        <_>
          4 17 4 6 -1.</_>
        <_>
          4 19 4 2 3.</_></rects>
      <tilted>0</tilted></_>
    <_>
      <rects>
        <_>
          5 0 5 6 -1.</_>
        <_>
          5 3 5 3 2.</_></rects>
      <tilted>0</tilted></_>
    <_>
      <rects>
        <_>
          8 0 26 6 -1.</_>
        <_>
          8 3 26 3 2.</_></rects>
      <tilted>0</tilted></_>
    <_>
      <rects>
        <_>
          8 1 8 1 -1.</_>
        <_>
          12 1 4 1 2.</_></rects>
      <tilted>0</tilted></_>
    <_>
      <rects>
        <_>
          8 1 26 18 -1.</_>
        <_>
          8 1 13 9 2.</_>
        <_>
          21 10 13 9 2.</_></rects>
      <tilted>0</tilted></_>
    <_>
      <rects>
        <_>
          9 0 23 6 -1.</_>
        <_>
          9 3 23 3 2.</_></rects>
      <tilted>0</tilted></_>
    <_>
      <rects>
        <_>
          9 3 13 21 -1.</_>
        <_>
          9 10 13 7 3.</_></rects>
      <tilted>0</tilted></_>
    <_>
      <rects>
        <_>
          10 12 7 12 -1.</_>
        <_>
          10 16 7 4 3.</_></rects>
      <tilted>0</tilted></_>
    <_>
      <rects>
        <_>
          11 0 12 1 -1.</_>
        <_>
          15 0 4 1 3.</_></rects>
      <tilted>0</tilted></_>
    <_>
      <rects>
        <_>
          11 12 3 12 -1.</_>
        <_>
          11 18 3 6 2.</_></rects>
      <tilted>0</tilted></_>
    <_>
      <rects>
        <_>
          11 22 6 2 -1.</_>
        <_>
          13 22 2 2 3.</_></rects>
      <tilted>0</tilted></_>
    <_>
      <rects>
        <_>
          12 22 6 2 -1.</_>
        <_>
          14 22 2 2 3.</_></rects>
      <tilted>0</tilted></_>
    <_>
      <rects>
        <_>
          13 0 9 1 -1.</_>
        <_>
          16 0 3 1 3.</_></rects>
      <tilted>0</tilted></_>
    <_>
      <rects>
        <_>
          14 0 12 1 -1.</_>
        <_>
          18 0 4 1 3.</_></rects>
      <tilted>0</tilted></_>
    <_>
      <rects>
        <_>
          14 3 8 21 -1.</_>
        <_>
          14 10 8 7 3.</_></rects>
      <tilted>0</tilted></_>
    <_>
      <rects>
        <_>
          14 15 2 2 -1.</_>
        <_>
          14 15 1 1 2.</_>
        <_>
          15 16 1 1 2.</_></rects>
      <tilted>0</tilted></_>
    <_>
      <rects>
        <_>
          15 0 18 16 -1.</_>
        <_>
          21 0 6 16 3.</_></rects>
      <tilted>0</tilted></_>
    <_>
      <rects>
        <_>
          15 0 20 2 -1.</_>
        <_>
          15 0 10 1 2.</_>
        <_>
          25 1 10 1 2.</_></rects>
      <tilted>0</tilted></_>
    <_>
      <rects>
        <_>
          15 1 6 2 -1.</_>
        <_>
          18 1 3 2 2.</_></rects>
      <tilted>0</tilted></_>
    <_>
      <rects>
        <_>
          15 16 1 4 -1.</_>
        <_>
          15 18 1 2 2.</_></rects>
      <tilted>0</tilted></_>
    <_>
      <rects>
        <_>
          16 0 6 1 -1.</_>
        <_>
          19 0 3 1 2.</_></rects>
      <tilted>0</tilted></_>
    <_>
      <rects>
        <_>
          16 0 20 8 -1.</_>
        <_>
          16 0 10 4 2.</_>
        <_>
          26 4 10 4 2.</_></rects>
      <tilted>0</tilted></_>
    <_>
      <rects>
        <_>
          16 1 4 2 -1.</_>
        <_>
          18 1 2 2 2.</_></rects>
      <tilted>0</tilted></_>
    <_>
      <rects>
        <_>
          16 1 6 1 -1.</_>
        <_>
          19 1 3 1 2.</_></rects>
      <tilted>0</tilted></_>
    <_>
      <rects>
        <_>
          16 1 8 1 -1.</_>
        <_>
          20 1 4 1 2.</_></rects>
      <tilted>0</tilted></_>
    <_>
      <rects>
        <_>
          16 13 20 7 -1.</_>
        <_>
          26 13 10 7 2.</_></rects>
      <tilted>0</tilted></_>
    <_>
      <rects>
        <_>
          16 21 3 3 -1.</_>
        <_>
          17 21 1 3 3.</_></rects>
      <tilted>0</tilted></_>
    <_>
      <rects>
        <_>
          17 0 8 1 -1.</_>
        <_>
          21 0 4 1 2.</_></rects>
      <tilted>0</tilted></_>
    <_>
      <rects>
        <_>
          18 0 9 8 -1.</_>
        <_>
          18 4 9 4 2.</_></rects>
      <tilted>0</tilted></_>
    <_>
      <rects>
        <_>
          18 23 6 1 -1.</_>
        <_>
          20 23 2 1 3.</_></rects>
      <tilted>0</tilted></_>
    <_>
      <rects>
        <_>
          19 6 3 6 -1.</_>
        <_>
          19 8 3 2 3.</_></rects>
      <tilted>0</tilted></_>
    <_>
      <rects>
        <_>
          19 15 9 6 -1.</_>
        <_>
          22 15 3 6 3.</_></rects>
      <tilted>0</tilted></_>
    <_>
      <rects>
        <_>
          19 23 2 1 -1.</_>
        <_>
          20 23 1 1 2.</_></rects>
      <tilted>0</tilted></_>
    <_>
      <rects>
        <_>
          19 23 6 1 -1.</_>
        <_>
          21 23 2 1 3.</_></rects>
      <tilted>0</tilted></_>
    <_>
      <rects>
        <_>
          20 23 6 1 -1.</_>
        <_>
          22 23 2 1 3.</_></rects>
      <tilted>0</tilted></_>
    <_>
      <rects>
        <_>
          21 2 15 19 -1.</_>
        <_>
          26 2 5 19 3.</_></rects>
      <tilted>0</tilted></_>
    <_>
      <rects>
        <_>
          21 9 2 14 -1.</_>
        <_>
          21 9 1 7 2.</_>
        <_>
          22 16 1 7 2.</_></rects>
      <tilted>0</tilted></_>
    <_>
      <rects>
        <_>
          21 23 15 1 -1.</_>
        <_>
          26 23 5 1 3.</_></rects>
      <tilted>0</tilted></_>
    <_>
      <rects>
        <_>
          22 3 2 18 -1.</_>
        <_>
          22 3 1 9 2.</_>
        <_>
          23 12 1 9 2.</_></rects>
      <tilted>0</tilted></_>
    <_>
      <rects>
        <_>
          23 20 6 4 -1.</_>
        <_>
          25 20 2 4 3.</_></rects>
      <tilted>0</tilted></_>
    <_>
      <rects>
        <_>
          23 21 4 2 -1.</_>
        <_>
          25 21 2 2 2.</_></rects>
      <tilted>0</tilted></_>
    <_>
      <rects>
        <_>
          24 22 2 2 -1.</_>
        <_>
          24 22 1 1 2.</_>
        <_>
          25 23 1 1 2.</_></rects>
      <tilted>0</tilted></_>
    <_>
      <rects>
        <_>
          24 22 11 2 -1.</_>
        <_>
          24 23 11 1 2.</_></rects>
      <tilted>0</tilted></_>
    <_>
      <rects>
        <_>
          26 8 10 11 -1.</_>
        <_>
          31 8 5 11 2.</_></rects>
      <tilted>0</tilted></_>
    <_>
      <rects>
        <_>
          26 15 3 4 -1.</_>
        <_>
          27 15 1 4 3.</_></rects>
      <tilted>0</tilted></_>
    <_>
      <rects>
        <_>
          28 0 7 6 -1.</_>
        <_>
          28 3 7 3 2.</_></rects>
      <tilted>0</tilted></_>
    <_>
      <rects>
        <_>
          28 3 8 3 -1.</_>
        <_>
          32 3 4 3 2.</_></rects>
      <tilted>0</tilted></_>
    <_>
      <rects>
        <_>
          28 9 6 1 -1.</_>
        <_>
          30 9 2 1 3.</_></rects>
      <tilted>0</tilted></_>
    <_>
      <rects>
        <_>
          30 0 3 4 -1.</_>
        <_>
          30 2 3 2 2.</_></rects>
      <tilted>0</tilted></_>
    <_>
      <rects>
        <_>
          30 1 6 22 -1.</_>
        <_>
          33 1 3 22 2.</_></rects>
      <tilted>0</tilted></_>
    <_>
      <rects>
        <_>
          31 8 3 8 -1.</_>
        <_>
          32 8 1 8 3.</_></rects>
      <tilted>0</tilted></_>
    <_>
      <rects>
        <_>
          32 0 4 6 -1.</_>
        <_>
          32 3 4 3 2.</_></rects>
      <tilted>0</tilted></_>
    <_>
      <rects>
        <_>
          32 8 3 2 -1.</_>
        <_>
          33 8 1 2 3.</_></rects>
      <tilted>0</tilted></_>
    <_>
      <rects>
        <_>
          34 1 2 22 -1.</_>
        <_>
          35 1 1 22 2.</_></rects>
      <tilted>0</tilted></_>
    <_>
      <rects>
        <_>
          34 1 2 23 -1.</_>
        <_>
          35 1 1 23 2.</_></rects>
      <tilted>0</tilted></_>
    <_>
      <rects>
        <_>
          34 8 2 6 -1.</_>
        <_>
          34 11 2 3 2.</_></rects>
      <tilted>0</tilted></_>
    <_>
      <rects>
        <_>
          34 17 2 5 -1.</_>
        <_>
          35 17 1 5 2.</_></rects>
      <tilted>0</tilted></_>
    <_>
      <rects>
        <_>
          34 19 2 2 -1.</_>
        <_>
          35 19 1 2 2.</_></rects>
      <tilted>0</tilted></_>
    <_>
      <rects>
        <_>
          34 22 2 1 -1.</_>
        <_>
          35 22 1 1 2.</_></rects>
      <tilted>0</tilted></_>
    <_>
      <rects>
        <_>
          35 6 1 6 -1.</_>
        <_>
          35 8 1 2 3.</_></rects>
      <tilted>0</tilted></_>
    <_>
      <rects>
        <_>
          35 15 1 3 -1.</_>
        <_>
          35 16 1 1 3.</_></rects>
      <tilted>0</tilted></_></features></cascade>
</opencv_storage>
