<?xml version="1.0"?>
<opencv_storage>
<cascade>
  <stageType>BOOST</stageType>
  <featureType>HAAR</featureType>
  <height>24</height>
  <width>36</width>
  <stageParams>
    <boostType>GAB</boostType>
    <minHitRate>9.9500000476837158e-01</minHitRate>
    <maxFalseAlarm>5.0000000000000000e-01</maxFalseAlarm>
    <weightTrimRate>9.4999998807907104e-01</weightTrimRate>
    <maxDepth>1</maxDepth>
    <maxWeakCount>100</maxWeakCount></stageParams>
  <featureParams>
    <maxCatCount>0</maxCatCount>
    <featSize>1</featSize>
    <mode>BASIC</mode></featureParams>
  <stageNum>9</stageNum>
  <stages>
    <!-- stage 0 -->
    <_>
      <maxWeakCount>3</maxWeakCount>
      <stageThreshold>-1.4482704401016235e+00</stageThreshold>
      <weakClassifiers>
        <_>
          <internalNodes>
            0 -1 5 1.1612958461046219e-01</internalNodes>
          <leafValues>
            -9.5353746414184570e-01 7.5510203838348389e-01</leafValues></_>
        <_>
          <internalNodes>
            0 -1 27 -1.7695949645712972e-03</internalNodes>
          <leafValues>
            4.8448395729064941e-01 -8.7176889181137085e-01</leafValues></_>
        <_>
          <internalNodes>
            0 -1 25 1.8326987046748400e-03</internalNodes>
          <leafValues>
            -9.3393498659133911e-01 3.7703600525856018e-01</leafValues></_></weakClassifiers></_>
    <!-- stage 1 -->
    <_>
      <maxWeakCount>4</maxWeakCount>
      <stageThreshold>-1.7681522369384766e+00</stageThreshold>
      <weakClassifiers>
        <_>
          <internalNodes>
            0 -1 12 2.7793940901756287e-01</internalNodes>
          <leafValues>
            -9.4485682249069214e-01 4.7169810533523560e-01</leafValues></_>
        <_>
          <internalNodes>
            0 -1 33 -1.2202775105834007e-02</internalNodes>
          <leafValues>
            7.1081680059432983e-01 -8.0231380462646484e-01</leafValues></_>
        <_>
          <internalNodes>
            0 -1 24 -2.1772380918264389e-02</internalNodes>
          <leafValues>
            8.5413837432861328e-01 -6.4330953359603882e-01</leafValues></_>
        <_>
          <internalNodes>
            0 -1 20 8.4224082529544830e-03</internalNodes>
          <leafValues>
            -7.0821207761764526e-01 6.2232786417007446e-01</leafValues></_></weakClassifiers></_>
    <!-- stage 2 -->
    <_>
      <maxWeakCount>4</maxWeakCount>
      <stageThreshold>-1.7200694084167480e+00</stageThreshold>
      <weakClassifiers>
        <_>
          <internalNodes>
            0 -1 6 4.2817145586013794e-02</internalNodes>
          <leafValues>
            -9.3319416046142578e-01 7.3684209585189819e-01</leafValues></_>
        <_>
          <internalNodes>
            0 -1 4 1.5752205252647400e-01</internalNodes>
          <leafValues>
            -8.7407684326171875e-01 3.7109303474426270e-01</leafValues></_>
        <_>
          <internalNodes>
            0 -1 23 -3.8035996258258820e-02</internalNodes>
          <leafValues>
            8.4078526496887207e-01 -5.8279448747634888e-01</leafValues></_>
        <_>
          <internalNodes>
            0 -1 26 8.2745673134922981e-03</internalNodes>
          <leafValues>
            -5.1119846105575562e-01 6.6999602317810059e-01</leafValues></_></weakClassifiers></_>
    <!-- stage 3 -->
    <_>
      <maxWeakCount>4</maxWeakCount>
      <stageThreshold>-1.9371567964553833e+00</stageThreshold>
      <weakClassifiers>
        <_>
          <internalNodes>
            0 -1 17 1.6340050846338272e-02</internalNodes>
          <leafValues>
            -9.4384449720382690e-01 1.1428571492433548e-01</leafValues></_>
        <_>
          <internalNodes>
            0 -1 8 -3.3671210985630751e-04</internalNodes>
          <leafValues>
            2.4091994762420654e-01 -8.4229815006256104e-01</leafValues></_>
        <_>
          <internalNodes>
            0 -1 30 4.8139896243810654e-03</internalNodes>
          <leafValues>
            -5.6509917974472046e-01 7.1426898241043091e-01</leafValues></_>
        <_>
          <internalNodes>
            0 -1 34 1.5264654532074928e-02</internalNodes>
          <leafValues>
            -8.6250114440917969e-01 4.1408509016036987e-01</leafValues></_></weakClassifiers></_>
    <!-- stage 4 -->
    <_>
      <maxWeakCount>5</maxWeakCount>
      <stageThreshold>-1.5574661493301392e+00</stageThreshold>
      <weakClassifiers>
        <_>
          <internalNodes>
            0 -1 2 5.5014228820800781e-01</internalNodes>
          <leafValues>
            -9.6625423431396484e-01 -6.5420560538768768e-02</leafValues></_>
        <_>
          <internalNodes>
            0 -1 19 3.1725652515888214e-02</internalNodes>
          <leafValues>
            -7.2031575441360474e-01 7.4175977706909180e-01</leafValues></_>
        <_>
          <internalNodes>
            0 -1 11 7.4285909533500671e-02</internalNodes>
          <leafValues>
            -7.1405184268951416e-01 3.9917480945587158e-01</leafValues></_>
        <_>
          <internalNodes>
            0 -1 9 -9.1895944933639839e-06</internalNodes>
          <leafValues>
            -1. 2.4368241429328918e-01</leafValues></_>
        <_>
          <internalNodes>
            0 -1 32 2.6516066864132881e-03</internalNodes>
          <leafValues>
            -5.1375347375869751e-01 6.1698198318481445e-01</leafValues></_></weakClassifiers></_>
    <!-- stage 5 -->
    <_>
      <maxWeakCount>3</maxWeakCount>
      <stageThreshold>-1.4997038841247559e+00</stageThreshold>
      <weakClassifiers>
        <_>
          <internalNodes>
            0 -1 13 4.2718045413494110e-02</internalNodes>
          <leafValues>
            -9.0378707647323608e-01 8.9473682641983032e-01</leafValues></_>
        <_>
          <internalNodes>
            0 -1 1 5.3851765394210815e-01</internalNodes>
          <leafValues>
            -7.9648804664611816e-01 2.7757653594017029e-01</leafValues></_>
        <_>
          <internalNodes>
            0 -1 10 2.0821371581405401e-03</internalNodes>
          <leafValues>
            2.0057120919227600e-01 -1.</leafValues></_></weakClassifiers></_>
    <!-- stage 6 -->
    <_>
      <maxWeakCount>4</maxWeakCount>
      <stageThreshold>-1.1729962825775146e+00</stageThreshold>
      <weakClassifiers>
        <_>
          <internalNodes>
            0 -1 28 5.5713512003421783e-02</internalNodes>
          <leafValues>
            -9.0123456716537476e-01 4.1666665673255920e-01</leafValues></_>
        <_>
          <internalNodes>
            0 -1 16 4.1155286133289337e-02</internalNodes>
          <leafValues>
            -7.2400021553039551e-01 5.0400537252426147e-01</leafValues></_>
        <_>
          <internalNodes>
            0 -1 0 3.0726017430424690e-03</internalNodes>
          <leafValues>
            2.4190858006477356e-01 -9.7684460878372192e-01</leafValues></_>
        <_>
          <internalNodes>
            0 -1 21 -1.7109436448663473e-03</internalNodes>
          <leafValues>
            -9.7286581993103027e-01 2.1032994985580444e-01</leafValues></_></weakClassifiers></_>
    <!-- stage 7 -->
    <_>
      <maxWeakCount>5</maxWeakCount>
      <stageThreshold>-1.3196940422058105e+00</stageThreshold>
      <weakClassifiers>
        <_>
          <internalNodes>
            0 -1 18 3.3775009214878082e-02</internalNodes>
          <leafValues>
            -9.0339159965515137e-01 5.6521737575531006e-01</leafValues></_>
        <_>
          <internalNodes>
            0 -1 8 -3.3909798366948962e-04</internalNodes>
          <leafValues>
            3.2445344328880310e-01 -8.4665375947952271e-01</leafValues></_>
        <_>
          <internalNodes>
            0 -1 35 2.1040132269263268e-03</internalNodes>
          <leafValues>
            -5.3271311521530151e-01 6.0717129707336426e-01</leafValues></_>
        <_>
          <internalNodes>
            0 -1 3 8.4588455501943827e-04</internalNodes>
          <leafValues>
            2.8178766369819641e-01 -1.</leafValues></_>
        <_>
          <internalNodes>
            0 -1 29 3.9177327416837215e-03</internalNodes>
          <leafValues>
            -4.5347288250923157e-01 6.8127673864364624e-01</leafValues></_></weakClassifiers></_>
    <!-- stage 8 -->
    <_>
      <maxWeakCount>6</maxWeakCount>
      <stageThreshold>-1.9087061882019043e+00</stageThreshold>
      <weakClassifiers>
        <_>
          <internalNodes>
            0 -1 14 1.5880039334297180e-01</internalNodes>
          <leafValues>
            -9.0153849124908447e-01 6.1904764175415039e-01</leafValues></_>
        <_>
          <internalNodes>
            0 -1 7 -4.6902734786272049e-02</internalNodes>
          <leafValues>
            7.4049758911132813e-01 -6.6496926546096802e-01</leafValues></_>
        <_>
          <internalNodes>
            0 -1 15 3.2595802098512650e-02</internalNodes>
          <leafValues>
            -4.2207750678062439e-01 6.6197818517684937e-01</leafValues></_>
        <_>
          <internalNodes>
            0 -1 36 -8.5222702473402023e-03</internalNodes>
          <leafValues>
            -9.8348188400268555e-01 2.6185277104377747e-01</leafValues></_>
        <_>
          <internalNodes>
            0 -1 22 1.6236972063779831e-02</internalNodes>
          <leafValues>
            -6.3080114126205444e-01 3.6974877119064331e-01</leafValues></_>
        <_>
          <internalNodes>
            0 -1 31 4.8841655370779335e-05</internalNodes>
          <leafValues>
            -5.3748291730880737e-01 4.4882741570472717e-01</leafValues></_></weakClassifiers></_></stages>
  <features>
    <_>
      <rects>
        <_>
          0 0 8 18 -1.</_>
        <_>
          0 0 4 9 2.</_>
        <_>
          4 9 4 9 2.</_></rects>
      <tilted>0</tilted></_>
    <_>
      <rects>
        <_>
          0 0 36 22 -1.</_>
        <_>
          12 0 12 22 3.</_></rects>
      <tilted>0</tilted></_>
    <_>
      <rects>
        <_>
          0 0 36 23 -1.</_>
        <_>
          12 0 12 23 3.</_></rects>
      <tilted>0</tilted></_>
    <_>
      <rects>
        <_>
          0 0 34 5 -1.</_>
        <_>
          17 0 17 5 2.</_></rects>
      <tilted>0</tilted></_>
    <_>
      <rects>
        <_>
          0 2 33 8 -1.</_>
        <_>
          11 2 11 8 3.</_></rects>
      <tilted>0</tilted></_>
    <_>
      <rects>
        <_>
          0 3 33 4 -1.</_>
        <_>
          11 3 11 4 3.</_></rects>
      <tilted>0</tilted></_>
    <_>
      <rects>
        <_>
          0 4 36 1 -1.</_>
        <_>
          12 4 12 1 3.</_></rects>
      <tilted>0</tilted></_>
    <_>
      <rects>
        <_>
          0 9 15 6 -1.</_>
        <_>
          0 11 15 2 3.</_></rects>
      <tilted>0</tilted></_>
    <_>
      <rects>
        <_>
          0 22 3 1 -1.</_>
        <_>
          1 22 1 1 3.</_></rects>
      <tilted>0</tilted></_>
    <_>
      <rects>
        <_>
          1 9 4 8 -1.</_>
        <_>
          3 9 2 8 2.</_></rects>
      <tilted>0</tilted></_>
    <_>
      <rects>
        <_>
          1 10 6 7 -1.</_>
        <_>
          3 10 2 7 3.</_></rects>
      <tilted>0</tilted></_>
    <_>
      <rects>
        <_>
          1 16 33 8 -1.</_>
        <_>
          12 16 11 8 3.</_></rects>
      <tilted>0</tilted></_>
    <_>
      <rects>
        <_>
          3 2 24 22 -1.</_>
        <_>
          11 2 8 22 3.</_></rects>
      <tilted>0</tilted></_>
    <_>
      <rects>
        <_>
          3 4 24 1 -1.</_>
        <_>
          11 4 8 1 3.</_></rects>
      <tilted>0</tilted></_>
    <_>
      <rects>
        <_>
          3 14 33 9 -1.</_>
        <_>
          3 17 33 3 3.</_></rects>
      <tilted>0</tilted></_>
    <_>
      <rects>
        <_>
          4 9 25 6 -1.</_>
        <_>
          4 11 25 2 3.</_></rects>
      <tilted>0</tilted></_>
    <_>
      <rects>
        <_>
          5 4 18 2 -1.</_>
        <_>
          11 4 6 2 3.</_></rects>
      <tilted>0</tilted></_>
    <_>
      <rects>
        <_>
          6 0 11 4 -1.</_>
        <_>
          6 2 11 2 2.</_></rects>
      <tilted>0</tilted></_>
    <_>
      <rects>
        <_>
          6 4 18 1 -1.</_>
        <_>
          12 4 6 1 3.</_></rects>
      <tilted>0</tilted></_>
    <_>
      <rects>
        <_>
          7 19 12 3 -1.</_>
        <_>
          11 19 4 3 3.</_></rects>
      <tilted>0</tilted></_>
    <_>
      <rects>
        <_>
          9 13 12 10 -1.</_>
        <_>
          9 18 12 5 2.</_></rects>
      <tilted>0</tilted></_>
    <_>
      <rects>
        <_>
          11 0 24 1 -1.</_>
        <_>
          19 0 8 1 3.</_></rects>
      <tilted>0</tilted></_>
    <_>
      <rects>
        <_>
          11 9 24 4 -1.</_>
        <_>
          19 9 8 4 3.</_></rects>
      <tilted>0</tilted></_>
    <_>
      <rects>
        <_>
          12 3 9 8 -1.</_>
        <_>
          15 3 3 8 3.</_></rects>
      <tilted>0</tilted></_>
    <_>
      <rects>
        <_>
          13 3 8 5 -1.</_>
        <_>
          17 3 4 5 2.</_></rects>
      <tilted>0</tilted></_>
    <_>
      <rects>
        <_>
          13 12 21 2 -1.</_>
        <_>
          20 12 7 2 3.</_></rects>
      <tilted>0</tilted></_>
    <_>
      <rects>
        <_>
          14 4 10 6 -1.</_>
        <_>
          14 6 10 2 3.</_></rects>
      <tilted>0</tilted></_>
    <_>
      <rects>
        <_>
          14 16 6 3 -1.</_>
        <_>
          16 16 2 3 3.</_></rects>
      <tilted>0</tilted></_>
    <_>
      <rects>
        <_>
          15 4 6 19 -1.</_>
        <_>
          17 4 2 19 3.</_></rects>
      <tilted>0</tilted></_>
    <_>
      <rects>
        <_>
          15 8 6 3 -1.</_>
        <_>
          15 9 6 1 3.</_></rects>
      <tilted>0</tilted></_>
    <_>
      <rects>
        <_>
          16 7 2 6 -1.</_>
        <_>
          16 9 2 2 3.</_></rects>
      <tilted>0</tilted></_>
    <_>
      <rects>
        <_>
          16 11 2 12 -1.</_>
        <_>
          16 11 1 6 2.</_>
        <_>
          17 17 1 6 2.</_></rects>
      <tilted>0</tilted></_>
    <_>
      <rects>
        <_>
          17 8 1 6 -1.</_>
        <_>
          17 10 1 2 3.</_></rects>
      <tilted>0</tilted></_>
    <_>
      <rects>
        <_>
          18 5 6 5 -1.</_>
        <_>
          21 5 3 5 2.</_></rects>
      <tilted>0</tilted></_>
    <_>
      <rects>
        <_>
          19 0 14 20 -1.</_>
        <_>
          19 10 14 10 2.</_></rects>
      <tilted>0</tilted></_>
    <_>
      <rects>
        <_>
          19 7 3 3 -1.</_>
        <_>
          19 8 3 1 3.</_></rects>
      <tilted>0</tilted></_>
    <_>
      <rects>
        <_>
          21 9 15 7 -1.</_>
        <_>
          26 9 5 7 3.</_></rects>
      <tilted>0</tilted></_></features></cascade>
</opencv_storage>
